digraph Tree {
node [shape=box] ;
0 [label="X[1018] <= 0.0038\ngini = 0.8571\nsamples = 350\nvalue = [50, 50, 50, 50, 50, 50, 50]"] ;
1 [label="X[1361] <= 0.0032\ngini = 0.8333\nsamples = 300\nvalue = [50, 50, 0, 50, 50, 50, 50]"] ;
0 -> 1 [labeldistance=2.5, labelangle=45, headlabel="True"] ;
2 [label="X[14888] <= 0.0169\ngini = 0.806\nsamples = 254\nvalue = [50, 50, 0, 4, 50, 50, 50]"] ;
1 -> 2 ;
3 [label="X[18372] <= 0.0069\ngini = 0.7684\nsamples = 203\nvalue = [50, 4, 0, 4, 49, 47, 49]"] ;
2 -> 3 ;
4 [label="X[17343] <= 0.0252\ngini = 0.7221\nsamples = 163\nvalue = [50, 4, 0, 4, 49, 7, 49]"] ;
3 -> 4 ;
5 [label="X[15210] <= 0.0074\ngini = 0.6302\nsamples = 116\nvalue = [50, 3, 0, 4, 5, 5, 49]"] ;
4 -> 5 ;
6 [label="X[15631] <= 0.0552\ngini = 0.3693\nsamples = 56\nvalue = [44, 3, 0, 2, 2, 5, 0]"] ;
5 -> 6 ;
7 [label="X[10672] <= 0.0656\ngini = 0.2491\nsamples = 51\nvalue = [44, 3, 0, 2, 2, 0, 0]"] ;
6 -> 7 ;
8 [label="X[11379] <= 0.0064\ngini = 0.1563\nsamples = 48\nvalue = [44, 0, 0, 2, 2, 0, 0]"] ;
7 -> 8 ;
9 [label="X[3219] <= 0.0707\ngini = 0.0435\nsamples = 45\nvalue = [44, 0, 0, 0, 1, 0, 0]"] ;
8 -> 9 ;
10 [label="gini = 0.0\nsamples = 44\nvalue = [44, 0, 0, 0, 0, 0, 0]"] ;
9 -> 10 ;
11 [label="gini = 0.0\nsamples = 1\nvalue = [0, 0, 0, 0, 1, 0, 0]"] ;
9 -> 11 ;
12 [label="X[2213] <= 0.0113\ngini = 0.4444\nsamples = 3\nvalue = [0, 0, 0, 2, 1, 0, 0]"] ;
8 -> 12 ;
13 [label="gini = 0.0\nsamples = 2\nvalue = [0, 0, 0, 2, 0, 0, 0]"] ;
12 -> 13 ;
14 [label="gini = 0.0\nsamples = 1\nvalue = [0, 0, 0, 0, 1, 0, 0]"] ;
12 -> 14 ;
15 [label="gini = 0.0\nsamples = 3\nvalue = [0, 3, 0, 0, 0, 0, 0]"] ;
7 -> 15 ;
16 [label="gini = 0.0\nsamples = 5\nvalue = [0, 0, 0, 0, 0, 5, 0]"] ;
6 -> 16 ;
17 [label="X[25797] <= 0.0252\ngini = 0.3194\nsamples = 60\nvalue = [6, 0, 0, 2, 3, 0, 49]"] ;
5 -> 17 ;
18 [label="X[23473] <= 0.0189\ngini = 0.229\nsamples = 56\nvalue = [2, 0, 0, 2, 3, 0, 49]"] ;
17 -> 18 ;
19 [label="X[20974] <= 0.0562\ngini = 0.1424\nsamples = 53\nvalue = [2, 0, 0, 2, 0, 0, 49]"] ;
18 -> 19 ;
20 [label="X[25138] <= 0.0529\ngini = 0.0761\nsamples = 51\nvalue = [1, 0, 0, 1, 0, 0, 49]"] ;
19 -> 20 ;
21 [label="X[3142] <= 0.0474\ngini = 0.0392\nsamples = 50\nvalue = [1, 0, 0, 0, 0, 0, 49]"] ;
20 -> 21 ;
22 [label="gini = 0.0\nsamples = 49\nvalue = [0, 0, 0, 0, 0, 0, 49]"] ;
21 -> 22 ;
23 [label="gini = 0.0\nsamples = 1\nvalue = [1, 0, 0, 0, 0, 0, 0]"] ;
21 -> 23 ;
24 [label="gini = 0.0\nsamples = 1\nvalue = [0, 0, 0, 1, 0, 0, 0]"] ;
20 -> 24 ;
25 [label="X[7333] <= 0.1006\ngini = 0.5\nsamples = 2\nvalue = [1, 0, 0, 1, 0, 0, 0]"] ;
19 -> 25 ;
26 [label="gini = 0.0\nsamples = 1\nvalue = [0, 0, 0, 1, 0, 0, 0]"] ;
25 -> 26 ;
27 [label="gini = 0.0\nsamples = 1\nvalue = [1, 0, 0, 0, 0, 0, 0]"] ;
25 -> 27 ;
28 [label="gini = 0.0\nsamples = 3\nvalue = [0, 0, 0, 0, 3, 0, 0]"] ;
18 -> 28 ;
29 [label="gini = 0.0\nsamples = 4\nvalue = [4, 0, 0, 0, 0, 0, 0]"] ;
17 -> 29 ;
30 [label="X[290] <= 0.0196\ngini = 0.1213\nsamples = 47\nvalue = [0, 1, 0, 0, 44, 2, 0]"] ;
4 -> 30 ;
31 [label="gini = 0.0\nsamples = 44\nvalue = [0, 0, 0, 0, 44, 0, 0]"] ;
30 -> 31 ;
32 [label="X[4226] <= 0.0326\ngini = 0.4444\nsamples = 3\nvalue = [0, 1, 0, 0, 0, 2, 0]"] ;
30 -> 32 ;
33 [label="gini = 0.0\nsamples = 2\nvalue = [0, 0, 0, 0, 0, 2, 0]"] ;
32 -> 33 ;
34 [label="gini = 0.0\nsamples = 1\nvalue = [0, 1, 0, 0, 0, 0, 0]"] ;
32 -> 34 ;
35 [label="gini = 0.0\nsamples = 40\nvalue = [0, 0, 0, 0, 0, 40, 0]"] ;
3 -> 35 ;
36 [label="X[14379] <= 0.0065\ngini = 0.1822\nsamples = 51\nvalue = [0, 46, 0, 0, 1, 3, 1]"] ;
2 -> 36 ;
37 [label="X[14251] <= 0.0327\ngini = 0.0807\nsamples = 48\nvalue = [0, 46, 0, 0, 1, 0, 1]"] ;
36 -> 37 ;
38 [label="X[11239] <= 0.0307\ngini = 0.0416\nsamples = 47\nvalue = [0, 46, 0, 0, 1, 0, 0]"] ;
37 -> 38 ;
39 [label="gini = 0.0\nsamples = 46\nvalue = [0, 46, 0, 0, 0, 0, 0]"] ;
38 -> 39 ;
40 [label="gini = 0.0\nsamples = 1\nvalue = [0, 0, 0, 0, 1, 0, 0]"] ;
38 -> 40 ;
41 [label="gini = 0.0\nsamples = 1\nvalue = [0, 0, 0, 0, 0, 0, 1]"] ;
37 -> 41 ;
42 [label="gini = 0.0\nsamples = 3\nvalue = [0, 0, 0, 0, 0, 3, 0]"] ;
36 -> 42 ;
43 [label="gini = 0.0\nsamples = 46\nvalue = [0, 0, 0, 46, 0, 0, 0]"] ;
1 -> 43 ;
44 [label="gini = 0.0\nsamples = 50\nvalue = [0, 0, 50, 0, 0, 0, 0]"] ;
0 -> 44 [labeldistance=2.5, labelangle=-45, headlabel="False"] ;
}